-3.36224;0.6592811;1.9222051;0.28847355;-6.323963;-8.757272;2.2041128;-1.1019778;-0.79863083;-4.1099744;-5.9883995;-6.7721515;2.619646;-16.470541;11.132474;-2.2939894;-6.170442;3.738714;6.6560616;5.589665
-2.2741168;4.866892;-2.2591777;3.5011992;-3.2318056;-1.4970862;-2.016657;-0.94167733;-0.90623647;-0.7378187;-0.5675275;-1.2753174;-1.7184962;-1.212659;2.8927171;-0.80869335;-0.9893986;-0.46236888;-0.86175877;-0.7219975
-0.8878906;0.54983467;-1.4745711;4.5610247;-1.9384332;-0.44677168;1.3395149;-1.1455419;-0.9834806;-0.66679305;-1.2642397;-1.4090688;-1.6378448;-2.8867776;-1.0868388;-0.55361456;-1.303373;0.24839312;-1.0937208;-1.4696385
-2.6793585;3.5901887;0.27414256;0.16901258;-2.9269218;-1.9885451;-0.8345933;-3.4921932;-3.7148666;2.7555916;-1.085324;-1.3187679;-1.4833764;-0.89835566;-0.66358083;-0.77323526;-0.57001823;-0.70137495;-0.78760254;-0.8842908
-1.6527059;1.5603107;-2.2474303;1.0978204;-1.5509872;-0.42776707;-3.4023461;-4.27399;-0.7611806;-2.0129023;-2.8766384;-3.7322063;-2.9649477;-4.76039;0.84841025;-4.3479385;3.3223073;0.83818036;-1.5216272;-4.0312114
-1.8939626;3.7225943;-1.3845769;2.0280433;-3.992072;0.29822832;3.3076642;-3.7730353;-3.0670784;-0.029095996;-1.0486029;-1.2372729;-3.0801406;-0.4021546;-0.94067013;-0.76444304;-1.8581607;-0.7136792;-0.7734694;-3.0447507
2.7565644;1.2153327;-11.57525;-9.252904;-3.0417888;-12.973343;2.901216;-4.1378536;-11.066616;2.8694394;-12.128817;-7.318886;3.657035;10.065345;5.9997973;-10.353009;-14.836486;-11.144427;-12.251939;5.577057
-1.4675579;1.768556;0.8515307;-0.82270145;-0.86687887;-1.3025342;-2.2297137;3.2392836;0.063964844;-1.094633;-7.3939676;-3.697138;-4.6111445;-3.467824;-2.0947473;-3.4968812;1.023837;0.9353159;-4.801979;-3.9729495
-1.033363;-0.1397249;-1.5344406;3.29255;-3.120884;3.4452715;-1.9662678;-2.953537;-2.9844825;-0.13838424;1.8815709;-2.4297118;-5.02144;-1.1863374;1.0930303;-1.7422197;-0.9615469;-0.87414384;-3.8584452;-0.5404346
-1.9390143;1.2422305;-0.43555656;2.7808652;-2.722;0.51229674;-2.3849132;-1.588538;-1.9804634;0.069478884;0.923233;-2.9753046;-1.6400429;-5.563115;-1.2402699;-0.47426814;0.14578366;-0.116800375;-1.2618847;-2.0269785
1.7345419;-3.598943;-7.6583805;-8.620517;3.3960774;3.5374672;-4.531915;6.473169;-6.8850527;-13.018134;-16.684128;5.286738;-2.8484292;-9.607008;-1.1102761;-8.044349;5.478026;4.160693;-6.453726;-1.9926882
-0.74180365;-2.8190923;5.8129144;-11.222374;-5.592044;-5.6514397;5.7452464;-3.829422;-3.9821773;7.029046;-4.6064124;6.6513743;2.697178;-7.195659;-8.481287;-2.053297;4.9527664;-0.784421;-5.0157075;-0.5291916
-2.039479;0.93109584;0.26958212;1.5619118;-2.780137;0.4182573;-2.7288625;-4.8495235;1.0332267;-1.4327902;2.8436987;-2.737479;-1.8161982;-2.637593;1.4283689;-1.0196465;3.1005065;-0.9284641;-1.2884698;-1.1778989
-0.9020453;-0.14930713;1.3167894;-0.2588268;1.4572608;-0.20431279;-1.3698486;-1.2314696;-1.4940281;-0.20081785;3.0422018;-1.4806331;-2.113725;-1.4415094;-0.034142654;-0.38313562;-1.3991114;1.8252566;-1.3696288;-1.3134733
-2.7212064;0.94586664;1.5655508;0.35019144;-0.99096346;2.4136271;-1.8081002;-4.777165;5.6467924;3.715998;0.92573106;-3.3695772;-1.333785;-8.837381;-0.67861986;1.7677782;2.9929729;-0.58997786;-4.333214;-1.779715
-2.1593804;3.308124;-0.62546515;-1.2866598;0.32704154;0.88384163;3.218414;-1.3833187;-2.4344707;-0.47934383;-2.2604368;-1.6913736;-2.7146385;-1.9921068;-4.1015987;-1.7761322;-1.5415347;-1.5360982;-4.2519927;-1.0237538
-0.86841804;0.74427044;1.4326894;3.4627302;2.5012743;-1.6102141;-2.3982687;-1.0035734;-1.106635;-0.5895625;-1.0288838;-1.4821285;-3.522626;-2.1218064;-1.1474833;-0.54846215;-1.39154;-0.46900427;-0.9680591;-1.1508354
3.6161761;0.414835;0.4194951;4.211597;-0.6867952;-3.1059577;-3.3741672;-2.8870475;-0.66654325;-2.0431604;-2.0449586;0.81700873;-2.0681183;-7.31476;0.56516016;-2.5357933;-4.811167;-2.0746243;-1.4223529;0.30116403
-2.6536126;3.7671216;2.3588467;-0.84755665;-0.537036;-0.50369656;-2.9942815;-0.7993595;-0.8022861;-0.50150985;-0.73881876;-1.0732902;-0.8182735;-0.84952956;-0.6224557;-0.2628256;-1.0639095;-0.7791103;-0.76930624;-1.0942216
-1.0453033;3.0389798;1.05436;-7.687338;-10.514736;0.8871773;-15.224595;5.058;10.262989;-3.442714;-7.331542;-12.709734;3.9139342;-12.977043;0.3038808;6.376017;-12.7268505;-9.180942;-9.313225;-5.7145853
-0.2315395;0.6841983;0.8414025;8.874584;-1.2420154;-0.74369276;-3.9003792;-0.98079145;-0.7061813;-0.29463297;-3.5652332;-1.2244692;-1.9570345;-0.9693537;0.32113233;-1.1724194;-3.3423536;0.5124455;-1.1803555;-3.3807354
-1.3009657;1.5397342;-1.8839642;2.0754204;-2.6655035;-0.8317404;-1.8805566;-0.9576822;-3.6536877;0.951132;2.1561344;-4.7953625;-3.5813637;1.412271;0.69572186;-1.7032481;2.2438226;-1.3022257;-1.3745625;-1.0661824
4.9135466;-1.6681461;-2.0386648;2.746451;1.810775;3.5253315;-9.729134;-4.6347685;-3.5907576;-3.6180813;-0.7452038;-4.5189924;-10.155785;6.9116373;-1.3241262;1.6980428;-6.825633;-2.8309283;1.9785941;-8.488119
-1.987008;0.53349304;-0.14709502;2.40984;-5.8398805;3.341131;0.1877477;-3.513849;-1.607503;-0.2577534;1.674178;-1.826754;-2.8961887;-2.251415;0.047856834;1.1767484;-3.7282217;-1.6773232;-1.4575332;-1.6073661
-0.92538416;0.9085758;-1.0136236;2.3222096;-1.3962004;-2.7096136;0.5688119;-1.0681286;-1.0177493;-0.5332071;-0.44499004;-1.6062597;-1.9771463;-6.0665426;-0.158337;-0.61747384;-0.9960833;-0.85961866;-1.192708;-1.2373676
-0.836303;1.1754808;-0.81523603;-0.5115808;2.569406;-0.7997365;2.3631575;-1.0344146;-1.0234454;-0.43626478;-1.2036698;-1.4310331;-1.9249223;-1.9367712;-0.9550882;-0.4587348;-1.4075476;-0.53646046;-1.1123031;-1.1829282
2.8587496;3.934399;-3.846714;-0.55473775;-3.1207016;-2.622177;-5.3731036;-2.3873007;3.2148957;-3.5289073;0.7591177;-0.9551717;-1.2714455;0.2541379;2.5621529;-3.379445;-5.2018833;-0.729081;-1.1681788;0.76571715
-0.9131001;1.5205566;2.402001;0.88185465;1.9968994;-9.240361;-1.8046057;-1.0513167;-1.1432227;-0.5310302;-0.48535213;-1.3903261;-4.5796638;-4.127845;-1.1039054;-0.6247966;-1.2237791;-0.9697878;-1.1337788;-1.1221201
-2.2694325;1.0862406;2.0253534;2.412938;-5.062559;3.362394;-5.35641;-2.0327752;-1.7919098;0.14405327;-0.007733253;-4.2324677;-2.7941906;1.1858708;-1.4452624;4.5218143;-0.2542386;-1.3729193;-1.5735475;2.357696
-2.84052;1.8926084;1.6444141;-3.7800028;-1.0163804;-0.7579155;-4.1667504;-3.6441164;-4.126323;3.1405137;2.5232186;-2.51266;-3.6116097;0.48330146;-3.7577982;0.050015748;3.6527631;0.9086898;-3.7742338;-0.6939878
-2.3339925;-1.2419223;-1.5656224;4.1534767;-0.89430493;-5.147716;3.5284338;-10.874601;2.038501;1.809314;-2.2113593;-11.868244;-0.45539352;0.5610247;-3.0379972;12.3430605;2.7407792;-8.061271;-6.767526;-2.8810112
-2.1595442;3.7588844;-0.08014997;0.6592822;-2.538503;-3.1496055;-0.5013725;3.2971814;-4.9913864;1.0390913;-5.736224;-1.7099571;-9.635731;-6.0588894;-0.5416124;-0.8489789;-3.5449991;-1.7110921;-1.5771148;-5.382847
0.040115014;2.571878;8.082774;-0.71663946;1.7829325;0.8052888;-1.5869563;-1.1418725;-1.5880506;-1.8858382;1.8886738;-3.3115919;-6.36342;-0.38298428;-4.1167865;-0.87943757;-1.3235205;-0.8143801;-3.5704439;-1.5756118
-0.9452597;1.0521386;-0.75101906;3.0240443;-0.6456722;-0.3186018;2.3742142;-1.1471741;-1.0203918;-0.3332007;-1.0179188;-1.4196095;-1.9620341;-1.7861723;-2.4963942;-0.7458232;-1.3545018;-0.97083294;-1.0775335;-1.028141
-0.94258374;0.44517577;-0.8725098;-2.21601;7.3026853;-5.806208;-3.0838788;-1.6128194;-3.938789;2.344303;-1.1631873;-2.6206207;-9.453344;-2.830055;-2.2417343;-0.934269;-0.04043203;-1.188648;-1.700844;-1.0629297
-1.9534183;4.7158995;-6.7670174;6.862062;2.4065166;-8.1923895;-3.5990376;2.6205924;-0.88957036;1.8929791;2.2561872;-9.850852;-9.164504;-8.6743145;-11.286048;0.028007826;-11.235725;3.775629;-2.8294904;-9.006911
2.1037338;-10.63344;-0.9295867;0.31778255;-9.341067;-7.002153;2.2417824;6.4173555;-4.1843777;4.980693;10.053654;-11.944937;-3.4501905;-11.667121;-7.560235;-7.6467156;7.0623546;-16.596931;5.8584447;-1.8211854
-0.89769566;1.1410824;-0.2169347;-0.5376226;-0.597313;0.08379838;3.122207;-1.114621;-1.0088601;0.18607116;-4.330143;-1.4276582;-2.2205656;-1.9356612;-0.7668062;-4.0099554;-1.1488867;-5.6195493;-1.3909972;-4.220624
-2.1332388;5.0269995;-0.36406714;-4.74856;-6.0703216;-4.1158447;-1.489615;-1.5934517;-2.5690176;-0.93920463;-3.015228;-3.4661162;-0.015276877;-6.462933;0.75367945;-0.56271845;-1.8310925;1.3028525;-0.95474344;-3.8594682
-0.68894136;1.373103;-5.4333696;-6.2421303;-3.7519295;-0.52747375;4.9087443;-2.3007708;-11.786105;3.9616857;4.6112156;-4.9042087;-3.2359984;-8.121978;1.085212;-4.3200164;-1.2566718;-1.3873885;0.0048823203;-4.852304
0.5163384;-5.269546;7.0385447;-4.230056;7.4974346;-8.860695;-9.281288;-7.808082;-2.2581973;4.09993;-4.0252595;5.8389974;-13.255268;0.4198066;-1.2916956;-0.09083157;4.5811763;-2.2506268;1.0871142;-5.8073955
5.92589;-1.9371774;-8.06489;3.942023;-13.8662815;-6.832754;-4.7163596;-14.150516;-3.31048;0.8009072;5.3970733;2.9610717;-4.8522873;-3.5165493;4.0390477;-0.5446077;-3.7240725;0.2995522;-5.488879;-10.834643
-0.8886092;1.8924788;-0.6887328;2.007404;-0.7997553;-0.73736274;-0.94473594;-1.0175884;-1.1130729;-0.49952173;-4.17022;-1.3621855;-1.853917;-1.1838403;-0.21435976;-1.0217838;-1.5194064;-3.3902147;-1.2321888;-4.341622
-2.5743759;1.5831159;0.027972957;-6.934421;-9.857808;8.833738;-1.5786097;-9.439191;1.5043275;-0.24120173;-2.8414953;4.385158;-11.804962;8.901224;1.4933314;-4.732594;-5.783202;0.12572144;4.484897;-16.935585
-0.87081164;0.2636472;-0.3506899;0.016298791;-0.20286857;-4.8422112;-2.4203923;-1.5563155;-1.7831846;-0.45257527;0.68782747;-2.698366;-2.2196229;-1.8889244;1.2985675;2.3072758;0.07403044;-0.47107622;-1.1938636;-1.058906
1.7121089;3.08803;-4.5602145;-10.998336;-5.9580674;-6.502495;-5.5354347;-16.426197;-14.938576;-11.931888;-14.883258;-12.517932;-19.485075;-2.4819672;-11.959383;6.779711;-3.863123;4.7698154;4.020805;11.414861
-3.594518;0.9126283;-4.894923;-9.636663;2.0084152;0.6411227;6.130703;-0.18330193;10.933267;-6.151412;3.6044037;-4.2949924;-9.686124;-1.1455543;-8.352304;-8.455505;-10.447943;-0.7498463;1.4073596;-7.268517
-6.212373;2.5204844;2.8426385;6.4614472;7.137353;5.5550857;0.5359742;-6.5108166;-12.717475;-16.92863;-14.115277;-8.38699;7.368133;-13.659667;-17.826086;-14.050535;-8.186965;-13.730588;-19.497787;-12.609857
-2.3831341;2.5768015;1.9296788;-2.6041236;-4.337401;0.72683984;2.4002836;-0.83373123;-4.0602226;0.7687906;-3.3331466;-4.5269055;0.55754143;-4.1798444;-3.0572977;-2.1135514;-2.0689263;1.9231333;-1.5290626;-4.2626767
3.022998;-0.8551876;-2.2806892;-1.9621277;0.20016053;-0.27829129;-2.2723608;-0.8828775;1.5363903;-0.5519179;2.4190147;-1.1839541;-0.91259575;-3.8759356;-1.2125078;-1.2760451;-7.5126705;-2.6976447;-1.9003913;-2.142622